genomestart 1

trait 1 0.1 0 0 0 0 0 0 0
trait 2 0.2 0 0 0 0 0 0 0
trait 3 0.3 0 0 0 0 0 0 0
trait 4 0.1 0 0 0 0 0 0 0
trait 5 0.2 0 0 0 0 0 0 0
trait 6 0.3 0 0 0 0 0 0 0
trait 7 0.1 0 0 0 0 0 0 0
trait 8 0.2 0 0 0 0 0 0 0
trait 9 0.3 0 0 0 0 0 0 0
trait 10 0.1 0 0 0 0 0 0 0
trait 11 0.2 0 0 0 0 0 0 0
trait 12 0.3 0 0 0 0 0 0 0
trait 13 0.1 0 0 0 0 0 0 0
trait 14 0.2 0 0 0 0 0 0 0
trait 15 0.3 0 0 0 0 0 0 0
trait 16 0.1 0 0 0 0 0 0 0
trait 17 0.2 0 0 0 0 0 0 0
trait 18 0.3 0 0 0 0 0 0 0
trait 19 0.1 0 0 0 0 0 0 0
trait 20 0.2 0 0 0 0 0 0 0

node 1 0 1 1
node 2 0 1 1
node 3 0 1 1
node 4 0 1 1
node 5 0 1 3
node 6 0 0 2
node 7 0 0 2
node 8 0 0 2
node 9 0 0 2

gene 1 1 6 0.0 0 1 0 1
gene 2 1 7 0.0 0 2 0 1
gene 3 1 8 0.0 0 3 0 1
gene 4 1 9 0.0 0 4 0 1
gene 5 2 6 0.0 0 5 0 1
gene 6 2 7 0.0 0 6 0 1
gene 7 2 8 0.0 0 7 0 1
gene 8 2 9 0.0 0 8 0 1
gene 9 3 6 0.0 0 9 0 1
gene 10 3 7 0.0 0 10 0 1
gene 11 3 8 0.0 0 11 0 1
gene 12 3 9 0.0 0 12 0 1
gene 13 4 6 0.0 0 13 0 1
gene 14 4 7 0.0 0 14 0 1
gene 15 4 8 0.0 0 15 0 1
gene 16 4 9 0.0 0 16 0 1
gene 17 5 6 0.0 0 17 0 1
gene 18 5 7 0.0 0 18 0 1
gene 19 5 8 0.0 0 19 0 1
gene 20 5 9 0.0 0 20 0 1

genomeend 1
